{-1388, -47, 1576, -651, 1026, -221, 1688, -1284, 413, 690, -684, 9, -208, -110, -1803, 652, 1340, 1140, 1225, 667, 632, 1, 973, 701, 1247, 97, -849, -18, 1, -1, 364, 9, -938, 2195, -76, -364, 832, -671, -755, 619, 303, 2578, -2054, 745, -10, -727, 613, -87, -74, -2, -379, 707, -694, -285, 456, 1053, 571, -2, -26, -1540, -743, -1075, -495, -1322, -769, -411, 1553, -746, -938, 76, -1330, -843, 24, 485, -191, 1554, 366, 593, 651, 741, 149, -12, 1116, 545, 3522, -232, -7, -35, -1256, -387, -490, -603, -183, 1491, 914, 701, -37, -216, 674, 1294, 1307, -11, -158, -15, 733, -717, -272, -455, 1529, -674, -2, -523, 1820, 33, 712, 668, 1886, 1708, 859, -391, -748, -426, 627, 169, -37, -16, 1541, 791, -28, -321, 2234, 618, -174, -970, 2008, -23, 206, -1347, 664, 1301, -346, -1621, 1490, -409, -1447, 3, 54, 610, 728, 28, 670, -818, -252, -397, 1103, 772, 702, 687, -384, -167, 15, -329, -224, 35, -616, -463, -593, -72, 975, 988, 890, 7, -19, 1720, 1914, 656, 725, -1771, -414, 1124, -1740, 852, 259, -10, -342, 773, -174, 1080, -161, 986, 878, -1059, 1212, -1154, 453, -1721, 24, 732, -1058, 1899, -7, -1003, 566, 1454, -47, 2020, -892, -409, 994, -1910, -766, 1218, 0, 870, 1593, -304, 639, 782, -439, -601, 2386, -18, -201, 2205, 79, 1152, 637, 1605, 17, 1184, -242, -824, -995, 824, -829, -1384, -55, 304, 739, 315, -188, -700, 1227, 652, 190, 508, -255, -148, -254, 2483, -93, -12, 1646, 1382, -857, 1148, 652, 483, -4, 6, -353, -15, -696, 460, -24, 836, 414, -253, -72, -1808, -1021, 1303, -1081, 1530, -213, 501, -11, -461, -1237, 737, 349, -96, -159, 2443, 751, -351, 638, -2, -381, 197, -130, 1634, 1373, 606, -817, 1573, -612, -574, 74, 672, -33, 1403, -364, -1, 523, 863, 841, 2490, 1127, 1047, -682, 2139, -179, 1703, -545, -1417, -391, 639, -1672, 678, 1022, -536, 820, -1, -739, 1898, 734, 1321, -562, -269, -924, 761, 430, 737, -708, 724, -1297, -286, 1364, 740, 1907, 383, -2, -442, 709, -490, 980, -372, -563, 10, 796, 109, -564, -595, -1036, 1246, -806, 720, -681, -567, 1384, 259, 569, 826, 62, -739, 715, 508, 1168, 772, -1579, -78, 629, -144, -5, 643, -826, 20, -7, 812, -448, -38, 1360, -141, 1494, 1416, 661, -757, 1921, 409, 4002, 566, 639, 2497, 645, 574, 757, -158, -355, 609, 6, -1426, -419, -115, 1822, -633, -1029, 812, -386, -8, 1127, -175, 1224, -365, -236, 869, 763, 18, -312, 359, -416, 3207, -302, 395, 1445, 30, -485, 537, 890, 1648, 931, -867, 87, -342, -23, -454, 869, 667, -651, 595, -1108, 337, -550, -802, -718, 1227, -356, -226, -1306, 1556, -532, -541, 181, -857, 0, 1086, 541, -673, -567, -444, -305, -46, -662, -291, -98, -16, 563, 288, -227, 1001, 1422, 245, 0, -320, -880, 712, 0, 1107, -394, -25}