{-790, -998, 1419, -108, -124, -789, 291, 532, 279, -125, -952, 286, -289, 963, -184, -74, 375, 446, 15, -178, 472, -1306, -463, -158, 288, -9, 1238, -172, -944, 535, 173, -71, -2730, -958, -290, 567, -672, -582, -688, -1236, 378, 773, 554, -658, 2058, -26, 201, -195, 20, 431, -40, -36, 273, 115, 490, -1170, -197, -545, 298, -85, -582, 531, -2046, 313, -441, -23, 552, -111, 676, 339, -312, -254, -580, -416, 6, -96, 357, -634, -483, -77, -137, 601, -133, -911, 550, -652, 690, -597, -238, 390, -148, 575, 573, -374, 37, -11, -78, -1388, -1064, 330, -296, 304, 428, -552, -317, -382, 541, 577, 722, -166, -47, -396, -399, 9, 2257, -6, 621, -456, -640, -726, 713, 462, -702, -1450, -21, -206, 600, 1352, 560, 500, -387, -33, 0, -1290, -870, -2048, 411, -305, -15, 9, -619, 290, 0, 26, -676, 338, 1344, -398, 316, 380, -154, -362, -569, 282, -710, -639, -238, 528, -797, 393, 646, -495, -491, -213, 359, -503, 517, 26, -452, -5, 486, 575, 1984, 638, -351, 443, -123, -89, -156, 108, 1697, 723, 310, 1253, 258, 667, -381, -315, -717, 493, 1114, 828, 201, -947, -872, -486, 890, -446, -631, 558, -255, 51, 207, 587, -1307, 1077, -284, -154, -199, -821, -106, -1012, -780, -518, 600, -667, -28, -597, -855, -58, 529, -380, 53, -595, 1171, -835, -137, -828, 1792, -538, -688, -510, -264, -393, -2248, -737, 95, 701, -830, -362, 4, -95, 1073, -562, -453, 800, -130, -1413, -22, -509, -254, -33, -206, 751, -413, -753, -897, -903, -134, 489, -728, -686, -461, -666, 543, 108, -27, 346, 463, -665, -328, 317, 244, -530, -888, -40, -398, -32, -458, 284, 1460, 621, -375, 903, -536, 748, -602, -232, -327, -1406, 604, -318, -13, 791, -143, 314, -285, 422, 378, -737, -160, 344, -153, 588, -728, -936, -433, -510, -411, -1546, 513, -54, -147, -72, 358, -395, 322, 384, -688, -380, -105, 349, -394, -196, 482, -37, -2122, 670, -134, -1020, -1804, -281, 55, -24, 40, 47, -632, -271, -70, -113, 756, -607, -633, -108, 349, 286, 242, -358, 335, -459, -12, 422, 303, 513, -245, -760, 391, -815, -735, 292, 440, -584, -400, -1183, 516, -334, 1303, -465, -613, 246, -337, 274, -68, -21, 241, -313, 310, -615, -246, -471, 734, -270, -243, 385, 428, -77, 409, 462, -266, -613, -656, -72, -814, -342, -188, -330, -447, -279, -113, 595, 187, 268, 1641, 674, 793, -306, -944, 434, -721, -867, 500, -252, 1340, 316, 1007, -252, 285, -1366, 408, 1074, 125, -885, -665, -191, 656, 239, 302, 528, -249, -835, 83, 150, -185, -142, -519, -100, -764, 362, -246, 654, -154, -102, 541, -264, 121, -455, -186, -272, -299, -397, -86, -2, 4, 605, -617, -212, -140, -312, -722, 303, -133, -97, -289, 326, 88, 158, 165, 375, 460, 478, -224, -510, -107, -568, 314, 494, 411, -371, 386, -712, 477, -699, 192, -340, -310, 668, -304, -425, 622, 382, 917, -37, -53, 337, -920, -114, 624, -358, 290, -645, 288, -938, 425, 357, -453, 172, -645, -83, 709, 285, 24, -1183, -1108, -111, -322, -169, -4, 681, 666, -374, -441, 280, -743, 32, -4, -10, -32, 443, 723, -401, -1310, 599, -236, -360, -455, 1, 815, 277, -946, -388, 375, 337, 491, -837, -424, -962, 30, 437, -204, 290, 726, -16, -420, -538, 605, -417, -552, -7, -683, 138, -330, 904, -407, 97, -531, 0, 725, -403, -985, 359, 839, -167, 711, -117, -42, 3, -944, 698, -392, -4, -715, -333, -301, 601, -102, -442, 588, -259, -1177, -10, -529, -527, -44, 594, -154, 660, 496, -791, 647, 912, 161, 681, -680, 389, -95, 343, 224, -470, 461, 32, -368, 336, -618, 272, 78, 431, -366, 1514, 376, -146, -6, -693, 200, 884, 425, 610, 48, -506, 850, -169, 2, -148, -783, 705, 271, 265, -339, 494, 590, 268, -487, -465, -663, 0, -16, -145, 836, -2, 95, -398, 420, -169, -587, 26, 197, -695, -784, 1728, 785, -155, -53, 281, 1038, 47, 399, 5, -1793, -427, -272, -87, -775, -27}