{-203, -22, 1865, -87, -12, 2078, 710, -50, -100, 648, -295, -12, -18, 1232, 820, 1076, 1472, 1244, -181, -121, -16, -85, 649, 950, 1055, 1590, -23, -11, 1009, -781, 705, -195, 1659, 1766, -113, -70, 633, 2043, 1856, 1965, -37, 1208, -11, 1726, 804, -321, -69, -84, 75, 1871, -116, -17, 1492, 2008, 77, -96, -69, -132, 1658, -148, -280, 50, 730, -389, 1529, -11, -1108, -92, 1706, -166, -168, -13, -23, 17, -214, -14, 2347, 1960, 66, 1140, 587, -46, -8, -141, -14, 381, -180, 727, 64, -16, 1418, -136, -619, -1149, -56, -21, 1657, -25, -1412, 1521, 1652, 1565, -186, -17, -33, -16, -24, -15, 1960, 724, -166, -3069, -22, -12, -22, -69, -537, 21, 39, -25, -18, 2152, 825, -37, -323, -17, -197, -436, 1297, -13, 850, -149, -2793, 779, -198, 901, -668, 1735, -13, 10, -13, -20, -20, 38, -30, -399, -37, -25, 924, 1483, 39, 15, 1829, -13, -2029, -1257, -1159, 1507, 2086, -183, -102, 2025, -314, 1574, -49, 1768, 2106, 37, -14, -921, -131, 756, 667, -22, 1825, 2167, -85, -125, 93, -21, 2158, 2648, -59, -97, 1132, 733, 3, -22, 620, 96, 2049, -15, -412, -171, -797, -228, -261, 91, 95, 96, 75, -42, -20, 1993, -489, 1982, -206, -554, 92, 1134, -35, 1812, 1954, 1799, 1491, 2047, -17, -74, 38, -188, -59, -15, 1586, 41, 1606, 1991, -89, 1496, 1840, -253, 1735, -856, -2646, 788, -16, 1643, -987, 683, -71, 2001, 831, 954, -121, -250, 890, -23, -23, 830, -50, -50, -24, 1292, -267, -14, -338, 842, -68, -86, -114, 1886, 1706, 845, 1604, 931, 2014, 18, 1815, -21, -97, -18, -16, -17, -23, 968, -129, 1389, 1318, -408, -516, -55, 902, -24, 965, 1921, -19, -25, -558, 2042, 1428, -192, -38, -101, -21, -12, 38, 731, -827, 972, -35, 1768, -109, -11, 2019, 45, -18, -175, -17, -18, -135, -702, 594, 1710, -17, -28, 1972, -35, 1654, -1410, -21, -26, -30, -71, 1310, 2202, -209, 1839, -13, -9, -31, -22, -17, -2, 1988, -541, -83, 2318, 99, -24, 2292, -27, 1941, -11, 41, 1774, -88, -16, 734, 853, 2079, 2091, -90, 1046, 1656, -12, -228, -19, 662, 1519, 1181, 1896, 1908, -14, 1761, 3727, 638, -19, -16, -16, 9, -107, 3, -689, -26, 46, -10, -20, -12, -65, 29, -12, 1704, -69, 1717, -137, 1321, 697, -221, -3499, -51, 1253, 1919, -17, -1923, -60, 1827, -20, 922, 1706, -40, 1825, 1449, 1676, 1474, 1628, -10, 1444, 1488, -4, 1753, 1383, -84, 1460, 1489, 1684, 1863, 597, 38, -10, -949, -23, -24, -160, -214, -66, -98, -63, -186, -17, 2007, 667, -42, 1912, -127, -536, 825, -14, 1374, -151, 1577, 1838, -740, 1683, 1527, 1199, 1951, -29, -812, -862, 650, -136, -18, 1551, -22, 1845, 1784, -22, -7, 23, -17, 1269, 106, -524, -14, 1717, -458, 74, -20, 1864, 352, 1114, -22, 1235, 771, -140, -39, 3, 57, -17, 1778, -19, 2223, -17, -519, -2, -224, -107, 1072, -23, -13, 43, 1084, -22, 1760, -268, 68, 460, 1258, 25, 1485, -14, 2204, 2151, -1991, 804, -15, -9, -14, 42, -518, 84, 2257, -543, 50, -307, -7, -13, -164, -11, 800, 980, 1606, -15, 868, -13, 1904, -334, -1011, 1955, -2, 1524, -806, -13, -375, -13, 1565, 2134, 4, -1028, -107, 1832, -12, 60, 918, 983, 1352, -555, 959, -13, -784, 1247, 2141, -2, -19, 60, 1845, -95, -21, -1106, 1770, 1924, 1860, 827, -65, 26, 1432, 2088, 675, 12, -382, -102, -16, 1685, 51, 741, -15, -162, 917, -65, 26, -79, -265, 1455, -75, -81, -5, 2056, -285, 714, -150, -363, 21, 1029, -376, 753, -52, 944, 54, -109, 2184, 893, -113, -17, 1239, -16, 43, -12, -191, -15, -10, -137, -1205, -120, 705, -44, -23, 789, -92, 708, -13, 45, -44, 926, -15, 1514, 777, 782, -42, -16, 1558, 789, -66, -831, 1636, -19, 658, -149, -22, 2067, -386, -10, 1950, -23, -17, 891, -53, -68, -1, -20, 993, -23, -98, 819, 1601, 44, 712, 1079, -531, -164, -14, 1468, -22, 853, 1773, 593, 59, -14, 2088, -107, 853, -110, -299, -20}