{-817, -545, 545, 262, -149, -463, -348, -390, 1581, 973, 280, -637, -392, 244, 523, 472, -335, -2190, -817, -592, -387, 12, -754, -293, 160, -1176, -14, 73, -427, -945, 290, -551, -224, -413, 2, -508, -1139, -885, -1759, 847, 201, 599, -50, -195, 412, -545, -391, 394, -123, -849, -668, 284, 625, -959, -491, -1476, -154, 14, -823, -110, -580, -285, -469, -447, 63, -642, -625, 364, 274, -920, -718, -221, -72, -59, 502, -259, -415, -462, -445, 227, -675, -1002, -412, -267, -299, -109, -361, -1179, -360, 186, 333, -1648, -22, 935, -842, -375, -14, 973, -373, -1814, 191, -2104, -483, -192, 120, -148, 410, -74, -1313, -24, -423, -471, 555, -189, 29, 545, -268, -311, 541, 543, -273, -24, -30, -631, -652, -566, -391, 445, -626, -381, -658, -843, -304, -1168, 325, 645, -82, -339, -905, 712, -124, -427, 1185, -318, -188, -669, 85, 93, -295, -358, -28, -1223, -845, 245, -329, -170, -806, -473, -8, -96, -724, -1796, -651, 261, 812, -123, 744, 748, 779, 477, 48, -1878, 244, -523, 296, -109, -99, -510, 591, -353, 984, 562, -249, 785, 342, -324, -2107, 204, -929, 276, 224, 27, 230, -651, -286, 393, 487, -918, -623, -743, -417, -918, -92, 593, -774, -680, -505, 716, -661, 103, -284, -667, 465, -860, -75, -85, 262, -140, 615, -616, 374, 484, 629, 168, -1331, -383, -569, -861, -843, 92, -1087, 84, 243, -5, -2181, -132, -586, -428, 194, -544, 545, -3, -424, -329, 748, 199, -161, -803, -973, 341, 58, -991, -478, -334, 227, 598, -1030, -788, -447, -36, 57, 1, -712, -12, -967, -877, -615, -523, -91, -179, -138, -52, -221, 218, 239, -408, -599, 215, -239, -523, -869, 52, -323, -665, -644, -796, 23, 266, 868, 425, -1021, -372, -717, -203, -403, 352, -318, -421, 343, 46, 3, -242, -98, 620, -739, 244, -9, -176, 227, 225, 208, 482, 382, -1613, -322, -472, 10, 273, -1353, -167, 146, 521, 112, -463, 382, -661, -151, -326, -373, -364, 550, 2, -82, -1024, -1460, -12, -346, 306, -1189, -952, 702, 243, -27, 13, -243, -252, -82, 277, -342, 406, -547, -1027, -387, -1188, -38, -774, 777, 307, -527, 1057, -369, -1020, -816, -320, 534, 128, 410, 361, -706, 367, -1102, -499, -5, -85, -63, -820, 662, -733, -670, 515, -202, -301, 625, -698, -905, -71, -435, -604, -15, -481, -477, -616, -1534, -278, -336, 387, 83, 319, 1, 802, -397, 206, -1637, -381, 234, -540, 430, -1769, -235, -467, -584, -513, -2067, -352, 0, 212, 310, 476, 1623, -880, 366, -1612, -299, -531, 201, -883, 0, -1412, 746, -5, 44, -362, -885, 207, -310, 332, -586, -29, -163, -312, -212, -1077, -99, -1668, -334, 253, 231, -814, 689, 563, -362, 437, -599, -1276, 208, -27, -991, 541, -347, -365, -1313, 299, -470, -927, -489, -1010, -715, -1921, -636, 433, 589, 357, 188, 670, -39, -747, -35, -326, 259, -627, -1023, -878, 952, -813, -745, -452, -561, -2737, -425, -31, 295, -441, -247, 560, -885, 494, -273, -13, 645, -496, 229, -153, -4, -331, 40, 960, -759, -34, -387, 246, -340, -1091, -799, 281, 3, 573, -70, -512, 858, -411, 227, -439, 982, -1093, 200, -502, -372, 120, 204, -795, -249, -761, 775, -131, -983, -695, -338, 269, 445, -87, -63, 218, -929, 242, -458, -453, -171, 352, -97, -497, 17, 72, -152, -686, 856, -659, 510, -973, 614, -852, -1008, -671, 13, -194, -632, 304, -1669, 262, -20, -335, -1683, 556, -791, 40, -525, -140, -508, -1075, -155, -223, -326, 203, 276, 230, 244, -404, 263, -90, -338, -67, -1094, 359, 574, -1386, -1328, 777, -53, -66, 307, -202, -2, 447, -215, -1859, 218, -148, -227, -232, -612, -177, 545, -266, 459, -590, -23, 567, -35, 194, 352, -139, 527, -745, -206, 603, -241, -265, -194, -63, -580, 594, 243, -859, -488, 288, -202, -340, -807, -114, -284, -628, 185, 753, -27, -566, -95, -11, 296, 435, -158, 338, -344, -1346, -6, -141, 197, -1045, -468, -420, -255, 1047, 214, -625, -8, -333, 458, 608, 829, -680, 213, -71, -344, -3, 191, -50, 639, -5, -999, -74, -668, -580, 507, -131, -994, -301, -452, -1603, 61, -1559, -496, 486, 136, -14, -431, 274, -962, 211, 590, -279, -127, -191, 470, -1146, 128, 223, 362, 476, 382, -710, 360, -539, 331, -591, -787, -543, -101, -160, 151, 188, -314, -489, -1540, 503, -540, 195, 1101, -190, -754, -79, 80, -1384, -821, -299, 209, -695, 615, -303, -525, -664, 761, -70, 831, -299, -611, -88, 230, -1041, -1125, 381, -733, -140, 40, -143, -1761, -789, 276, -352, -278, 439, -11, -881, -399, -482, -283, 578, 0, 528, -540, 475, 307, -418, 147, 703, -2791, 566, 758, -1326, -959, -748, -380, 234, -6, -95, 896, -342, 203, -448, -130, -1923, 667, -362, -1637, -638, -702, -31, 11, -493, 548, -800, -455, -1695, 38, 263, 342, -249, 915, -887, 196, -270, -1642, -102, -3, 514, -627, -772, 297, -507, -345, 185, 412, 256, 268, -590, 219, -1389, 775, -531, -896, -59, 699, -27, -138, -114, -1371, 338, -48, 239, -406, 469, 619, 250, -725, -130, -79, 432, 467, -442, -68, -391, -311, 175, -834, -1243, -598, -516, -879, -683, 361, -818, -895, -796, -719, 400, -522, -373, -431, 201, -928, 595, -1385, 236, -531, -105, 890, -779, -818, 187, -1350, 1184, 15, -1855, -492, -561, -296, -287, -300, 235, -1109, -984, 446, 357, -309, -92, 293, -40, -912, -233, -481, -1003, -395, -296, -60, -214, -49, -405, -607, 347, 24, -1110, 400, 1212, -387, -534, -807, 45, -905, -371, -323, 903, -1744, -1252, 473, -424, 192, -671, 309, 89, 472, 831, 39, -37, -2234, -599, -160, -599, 192, -559, -435, -462, -67, -1912, 227, 224, 514, -293, -97, -577, -537, 558, 688, 191, -103, -1344, 291, -410, 1047, 253, -388, -605, -16, 211}