{2022, 952, 217, 2437, -26, 869, 2243, 2077, 72, -38, -43, 2330, -7, -47, 1098, -161, -23, 105, 0, 2257, -125, -35, -5, 21, 2524, 3533, 1306, 1978, -268, 17, 1684, -286, 27, -181, 2307, 1843, 113, -33, -536, -2, -57, 20, -265, 1098, -11, 1328, 118, -23, -744, 2531, 866, -476, -442, -80, 933, -6, 2102, 1011, 56, 2679, -14, 51, 591, -16, 0, 1118, -10, 1688, 1422, -22, 1150, -339, -9, 1144, 2179, 57, 1, -119, -66, 1224, 103, 1794, 1102, -58, 2165, -252, 84, 2664, 976, 1835, -36, 2507, 801, -24, 864, 2781, -15, -679, 929, -212, 179, -35, 890, -8, 1811, 2302, 1291, 1657, 947, 1906, 104, 2081, 1963, 1096, 112, 31, 2942, -7, 907, 7, 31, 34, 1263, 0, 590, 1097, -21, 6, 2215, -123, 1045, 159, 2251, 2211, 999, 82, -42, 33, 1612, -22, 1113, 0, -104, 994, 165, 1205, 1103, -129, 2255, 3193, 1047, 1889, 1078, 53, -124, 1305, -16, 827, 1335, 2266, 246, 2475, 65, -401, 250, -160, 1613, 1152, 1511, -342, 1259, -8, 1697, -46, 3012, 1257, -30, 79, 1263, 1434, 2267, 0, 60, -90, -20, 1502, 965, 2479, 101, 1236, 31, -51, 84, -22, 15, -63, -302, 1199, 979, 11, 1817, -67, 1076, 6, -607, 1648, 5, 147, -74, 1037, 1109, 2592, 1100, 1359, 1432, 2350, -58, -432, 1258, 2504, 50, 39, 35, 2441, 1896, 2284, -391, 2464, 1259, -85, 2684, 3734, 1722, 1282, 76, 5, -17, -29, 2317, 1327}