{-1294, -3, 11, 47, 1183, -27, -29, 289, 373, 14, 17, 462, 828, -31, 1168, 7, 621, 192, 11, 57, -1155, -48, 32, -70, -1163, -43, 380, 10, 229, 1118, -186, -1, 432, 448, -16, -25, 620, -31, 23, 6, -675, -80, -37, -257, 784, -32, 884, -11, 300, 996, -509, 138, 1461, 768, 1500, -22, -84, -54, -5, 35, -2695, -186, 1495, -1, 3, -21, 14, 15, 28, -381, -20, -30, -734, -4, -140, -113, 15, 7, -857, -62, -8, -789, 291, 206, 607, -39, 282, 318, 117, -215, -22, 1899, 288, -5, 22, -7, 3, 6, -3, -7, 972, -24, 536, 964, 0, -6, -203, -249, -10, -17, -29, -272, -1120, -25, -3431, -948, -20, 117, 340, -265, -13, -260, 29, -659, -1064, -14, 627, 970, 1129, 0, 10, -508, 59, 941, -55, -330, -191, 79, -8, -25, 967, 18, 46, 289, 78, -21, -34, 292, 279, -258, -526, -682, -24, -55, 937, 151, 33, 4, -620, -64, 237, -63, -412, -2, 15, -496, 866, 916, 428, -4, -1, -865, 8, -263, 390, -21, -645, -20, 2829, -76, -19, 11, 454, -32, -161, -18, 2118, -53, -1264, -151, 890, -104, -4027, -69, -6, -206, 178, -38, 4, -179}