{2024, -1230, 4759, -112, 1606, -38, 2013, 1955, 2305, 1137, -26, -1890, 0, 60, 59, -27, -51, 2384, 1753, 606, -1395, -51, 67, -274, -158, 1538, 1035, 59, -1979, -527, 1900, 835, 176, -5, -3, 3557, -342, -502, -429, 1650, 158, 35, 1949, 827, 1616, 1423, 542, -158, 1201, 3, 142, -349, 1611, 3390, 903, 153, 817, -420, 630, -2657, -3, 628, 354, 1256, 384, 14, -11, -2, 187, 212, -155, 520, -1634, 4485, -312, -218, 15, -1493, -568, -8861, 1944, -66, 1072, -1941, -909, 863, 255, 983, -188, 232, 1642, 1506, 845, 1155, 649, -169, 1774, 242, -2759, -855, 1544, 481, -1075, -51, -164, -1358, -292, -66, 872, 486, 1815, 174, -1307, 1600, 27, -495, 214, -619, 3643, -483, -133, -13, 294, -4, 637, 374, 241, 72, -129, -577, 2186, -5, 2218, 628, -238, 2215, 1056, -1432, 132, 34, 1204, -22, 188, 1540, -13, 3518, 770, 45, -1899, -1884, 19, 576, 830, -98, 992, 231, 42, -20, -50, 570, 98, 21, 438, 896, 25, -1059, -1149, 396, 3191, -705, -121, -433, -10, -2109, -2174, 963, -3927, -3841, 874, 1570, 2057, -637, 943, -389}