{-554, -130, -803, -379, 1254, -465, -326, 727, 1095, 2600, -1079, 744, -23, 996, -1289, -142, -609, -807, 3759, -63, 885, 19, 12, -117, 772, -3, 798, 571, -232, 479, 1285, 653, 641, -297, -172, 317, -1258, 1257, 1950, 1603, 2477, 2033, 1641, -859, -259, 142, -268, -2170, -13, -637, 5, 1214, 943, 1607, -14, 575, 1110, 1347, 1098, 853, 579, -1598, 288, 91, -40, 1158, 678, -721, -140, -115, 572, -2, 805, -4, -570, -785, 1507, 775, -1187, 1002, -934, 235, -1552, 153, -4, -22, -272, 1066, 925, 575, 752, 7, -135, -1311, -448, -1644, 651, 594, -805, -2569, -16, -666, -1596, -7, 570, -3261, -8, -198, 416, 569, 686, -642, -1344, 1553, -3561, -31, -247, 860, 31, -430, 732, -377, -1437, 1013, 1579, 1165, 591, 782, -1083, -1160, -219, 852, 1485, 1198, -609, 544, -125, -572, 1184, 574, -674, 1004, 432, 1256, 3, -6, 1349, 223, 897, -1411, 418, -795, -132, 1849, 22, -599, -1251, 402, -988, -54, -211, 3, 1117, 642, 678, 1942, -115, -471, -693, 4, -26, 2163, -4, 847, 13, 155, 1224, 1055, 1388, -84, 6, 490, 1415, -386}