{-1541, -66, 1223, 447, -742, 1975, 1890, -499, -8, 1059, -107, -1001, 1145, -1063, 1107, -1514, -1612, -1443, -713, -2097, 1074, 928, -1524, -1606, 92, 2625, 1817, -1486, -1204, -898, 1855, -121, -1780, 1467, 243, -432, -866, -163, 1144, -799, 723, -1414, 317, 452, -1212, -730, -1799, -1427, 1786, 263, 248, 208, -689, -310, -718, -873, 1482, 413, -1910, -479, -1374, -1138, 1697, 699, 859, 314, -1354, -610, -643, -739, 693, 63, -979, 965, -371, -599, -1736, 350, -682, 1471, 1116, 2285, -86, 1423, 836, -680, -1896, 1258, 664, -489, -1214, 1726, 359, -1535, 378, 170, -422, -578, -539, 1372, 1614, -1346, 1108, -885, -1547, -830, -25, -82, 358, 216, -1565, 21, 505, 424, -2016, -1038, 2241, -503, 324, -1230, -2071, -1228, 1557, -458, 1407, 1165, -1152, -1341, -813, 1860, -870, -2366, -877, -321, -77, -1264, -1257, -1221, 1619, -627, -246, -1270, -2263, -455, 1978, 1120, -84, -1129, -64, 2604, 861, 118, 64, 223, 1526, 958, -6, 44, -557, -507, -2133, -984, -3137, 389, 2152, -88, -119, 1162, 1520, -755, 1341, -1145, 1829, -1195, 2092, 70, -1386, 3089, -941, 704, 1842, -845, -1009, -437, -1327, -588, -256, -2110, -1670, 605, -1498, 1208, -1596, -2568, -1732, -1281, -858, -570, -288, -193, 2123, 1333, 339, -974, 1085, 952, -1523, -1127, 883, 627, 513, 1000, -307, 570, -43, 992, -1609, -593, 9, -187, -2252, -410, -610, -674, -967, 1807, 2001, -791, 1067, 1608, 324, 2071, -1119, -977, -1856, -1171, -1142, -1468, -76, -1440}