{2891, -1996, 1267, -685, 818, -1093, 3485, 4314, 4330, 5657, -450, 4000, -3414, 3890, -881, -18, 1378, -1729, 4436, 1846, 4143, 2090, -715, 26, 2189, -2482, 2679, 79, -260, 4010, -451, 281, 3089, 1710, 1606, -215, -75, 179, 4276, 3274, 3712, 4146, 3089, -1196, 992, -4032, -1095, 1301, -2099, -1398, 648, 886, 2575, -1575, -2862, -552, 9, 3305, 1488, 2618, -956, -899, -4131, 3491, 2039, 1905, 3086, 21, 862, 1309, -1403, -998, 2975, -2611, 1382, 2765, 3680, -136, 734, 2159, -254, 4131, 1921, 1146, 487, -2557, 2638, 305, -163, 818, 3586, 1334, -2626, -565, -1552, -827, 4061, 2610, -1441, 2473, -1184, -1512, 380, 1576, 1574, 2410, -2305, -141, 2145, -800, 2859, 1000, 105, 3778, 2315, -1175, -540, -39, -1906, -1220, 2992, -1716, -2354, 593, 276, -813, -1492, 862, 2315, 463, 725, 1126, 3222, -436, 1058, 3248, -2215, -225, -353, 3859, -1478, 2604, 915, 2714, 2262, -1142, -157, 237, 589, 1782, -710, 128, 1001, 3404, -1549, -616, 2792, 551, 1, 1993, 856, 1492, 3208, 2037, 2480, 3454, -2326, -1731, -2649, -521, -2823, 3795, -1290, 2510, 2839, 3243, 2929, 4, 2756, -1487, -1033, 2294, 2656, -1372}