{-156, -767, 2572, -529, 2474, -3974, 2922, 1724, 3054, 615, 53, -3285, -820, 1494, 2399, 1174, 2793, 2541, 2098, 330, 81, -2019, -518, 472, 2562, 2411, 266, -1451, -2367, -649, 2244, -1880, 704, -1435, 75, -807, -2661, 1346, -1313, 3978, 2530, 3532, 1652, 521, -120, 510, 510, -1736, -1839, -1544, -733, 1276, -314, -247, -435, -1982, -696, -438, 1386, 2454, -209, -1427, -313, 2456, 21, -1221, -1156, -2327, -1007, 2409, 1376, 195, -1737, 2699, -1288, -1733, -1663, -14, -308, -999, 2620, -2940, 396, 4401, 3393, -1076, -342, -2105, 667, 76, -591, 1868, 1534, 1635, 2158, 940, -1468, -303, -724, -280, -1088, -680, -1928, -2085, 878, 412, 1798, 914, 875, 332, -1998, -102, -837, -2042, 922, 1080, 2904, -619, 1818, -1006, 356, 123, 326, 3459, -1155, -1094, 1493, 2521, 1067, -653, 3432, 416, 250, 766, 2630, -695, 4320, 1286, 301, -982, -1444, -1045, 3274, -2362, 2014, -1505, 1959, -832, 3759, -2206, 43, -912, -1345, -1211, 356, 1882, -1168, 931, -1701, -603, -231, -1770, 119, -1227, -195, -522, -1402, -1797, 1084, -2018, 2282, -2138, -2761, 2731, 4042, 3246, 864, 2422, 2836, 3409, 2015, 2003, 952, -1605, 2065, 1317, 2437, -672, -1879, -1729, 1485, 443, 1774, 1819, -971, 2055, -2000, -270, 2493, -1612, -1677, 878, 82, 246, 885, 3531, -1601, -758, 3856, 2471, 380, 3848, -1230, -1027, 5240, 1672, 1190, 2643, 1539, 1154, 4124, -2311, -1716, 3768, -1324, 3314, 1198, 2096, -1665, -2532, -311, 1955, 956, 1639, -763, -326, 2380, 3094, -511, -1935, -1889, -1848, -654, -842, 3175, -775, 2142, -2189, -1204, 3755, 292, -1566, 3452, 737, -9, -205, -1285, 1080, -1519, -1754, -1724, -2083, 474, 3157, -269, 1180, -560, -1172, -770, 1830, -45, -1741, 1855, 2235, -1429, -135, -330, -356, -1119, 1478, 3006, -124, 882, 4061, -1356, -865, 819, -1312, -1332, 1721, -2223, 4292, 635, -980, -431, -1026, -168, 1940, -1349, 1446, -775, 1482, -47, 1729, -702, -1761, -1175, 6532, -696, 72, 991, 4087, -181, 3100, -1070, 1294, -1588, -531, 2786, 1048, -353, -2015, 69, -812, 2711, -2072, 2775, -2467, 473, -1928, 280, 1097, -191, 1300, 1897, 851, 687, -1666, 3666, -1195, -827, 3857, -860, -609, 452, -1383, -408, 632, -762, -1918, 1974, -2660, 2207, 1151, 2248, 2639, 883, 1616, 1074, 873, -4, 2824, 288, -764, 3454, 1232, 820, -64, -1795, 1578, 509, -437, 322, 1487, -2507, 797, 1296, 149, 2583, 508, -461, -1401, 1127, -1678, -729, -217, -183, -884, 2735, -1185, 4049, -1849, -83, 5246, 1184, -532, 3651, -977, 12, 225, -1955, 2459, 1205, -1376, 2804, -129, 741, 2330, -259, -2946, 1642, 362, -244, -1333, -1291, -775, 395, -1191, -1369, 3729, -304, 3513, -1757, 2175, 1479, 1987, -73, -571, 1858, -1319, 2541, -1688, -1156, -1788, -1829, -415, 446, 647, 153, 419, 221, 2543, -97, -174, 2519, 3388, -3, -4273, -3065, -972, 3012, -1379, 2280, 2369, -816, 2779, -474, -682, 32, -189, -1908, -1271, -4583, 2630, -1174, -1632, -91, 3107, -879, -1249, 887, 518, -1650, -1009, 821, 836, -986, 921, 1314, 2887}