{548, 5622, 3772, -1277, 3259, -1439, -856, 2743, -559, 419, 1046, 3505, -2483, 3720, 3110, 893, 3313, -2081, -5779, -2576, -1092, 2286, 1868, -1872, -282, -1000, 2976, -1943, 2076, 1478, 3197, 3723, 2842, -3859, 1800, -2766, 389, -2089, 26, 789, -3967, 3393, 3715, -500, 4205, 1206, -233, -767, -3478, -2322, -2753, 2183, -1015, 75, -66, -2103, -880, 343, -1820, -1480, -2265, -2304, 3533, 1515, -1986, 2920, -2109, 2328, -707, 1632, -1729, -30, -231, -1443, 2585, 2145, -1768, -541, -1199, 1484, -1782, -559, 1939, 990, -2217, 626, -2045, -2268, -2708, 1346, 2760, -963, -596, 2525, 1560, 2049, -1027, 2953, -924, -118, 3008, -259, -2657, -511, -1877, 3553, -739, 967, -2352, 2608, 1783, 3214, -1748, 2158, 3404, -2458, 2968, -500, 1390, -396, -3154, -1335, 150, 2417, 777, -37, 949, 3535, 578, -649, 1997, 2609, 988, -1552, 1433, 2348, -2807, -1657, 1447, 473, -730, -1455, -216, 1587, 117, -2594, 3977, -861, -1604, 94, 1466, -1161, -1211, -1472, -3252, 64, -2886, -2371, -1984, -1103, -3513, -486, 2796, 1485, 3200, -2305, 4348, 4917, -1276, -785, -2306, 2169, 4086, -151, -1430, 327, 1997, -2586, 1816, 2761, 3245, 1312, 2899, 3926, -1500, -3050, -1590, 1210, -1983, 1901, 3274, -3735, 934, -127, -267, -1525, 2810, -726, 1144, 698, 1643, 2927, 142, -1535, 2063, 3071, 2046, -1604, -1677, 1204, -3116, -706, -49, -1806, 2916, -1114, 1770, -3019, -193, -43, -1850, -3110, 1773, -2389, 3696, -1483, 1990, 856, 3695, 3723, -1304, 2344, -3087, 2664, 6435, -1718, 2538, -2347, -1757, -925, -714, -499, 2771, -1651, -615, -2561, 2905, 2323, 2484, -4163, 2652, 522, 688, -1500, 1622, 631, 645, -1991, 3058, 316, 3275, -351, 1770, -1449, -295, 2025, 1837, -2674, -915, 2503, 2568, 311, 4707, -781, -1448, -37, -1542, 2268, -2194, -662, 3714, 2112, 2475, 3700, -2873, -240, 597, 2748, -2306, -235, -575, -1050, 1487, 3316, -759, -2262, 2907, -4304, 744, 642, -1421, 966, 2327, 3031, 385, -1762, -838, 977, 5606, 3161, 4543, 2454, -2950, 2105, 2082, 2647, 1726, -1005, -519, -1468, -1468, 1524, 2228, -357, -1170, 2328, 270, 21, 147, 2467, 6450, -1494, -158, -1079, 373, 2390, -1157, -1222, -3404, -2260, -871, 61, -1619, -1628, 1462, -1136, 2050, -2246, -2162, -2050, -166, 1746, 3349, -2368, -1084, -595, -285, -432, 1977, -853, 1908, -3382, 2263, 1481, 2170, -3505, 3912, 2055, 2029, 1758, 438, 166, -2054, -120, 1569, -1881, -2447, 2521, 2562, -3842, -3058, 2415, -230, 670, 558, -2167, -1465, 2018, -2088, 550, -3833, 2848, 926, 2570, -3520, -1050, 1533, -3068, -1762, -1111, -1764, -1036, 4604, -495, 3409, -1388, 2072, -2590, 850, -137, -625, -2579, 3753, -3206, 2531, -2837, 560, 2717, 2017, 3431, 2759, -1620, 1894, -1183, -989, 3903, 3384, -998, 2565, 371, 2314, -1092, -2278, 1545, 2730, -1835, -1441, 905, 2393, 4878, 2945, 2238, 2655, -1810, -2302, -2984, 2423, -1651, 1486, -488, 2692, 1701, -3532, -732, 768, -502, 2448, 1914, -1215, -1088, -2177, -2025, 4490, -14, 816, -630, -1223, -2547, 2050, 3816, 317, -584, 863, -903, -1435, 2042, 187, -107, -535, 198, -2347, 1035, 38, 2613, -1268, -2154, -1950, -1479, -2209, 1161, 3716, -2619, 2074, -1468, 4654, -2319, -123, 3472, -588, -1850, -2403, -454, -1157, 893, 541, 2897, -10, 1921, -3003, 2358, 2241, 2785, 2247, 1033, -1828, 1183, -2659, 3462, 2436, -1332, -180, -932, 1188, 2264, -2409, -309, 2504, -1109, 825, 1802, 3295, 2217, 2284, -891, 1601, 2598, 2993, -1134, -1273, 2534, -2281, 790, -4572, -132, 184, 1442, 2972, -584, -2380, -356, 3735, 1880, 1799, 904, 2355, -144, -1535, 1267, 797, 3394, 2680, 4353, -753, -1190, -2244, 919, -74, -1039, 1949, 2416, 2709, 2289, 57, 1622, 1851, 2543, -1412, -2998, 2622, 2793, 209, -513, -936, -592, 1584, 1973, 2937, -2790, -1165, -2185, -329, -1126, 1454, 2721, 2053, -745, 2703, 1993, -1471, 3339, 217, -3576, -3269, -3576, -1472, -231, -3020, -2727, 1510, -2494, 2844, 3877, 2014, 1416, 2716, -1203, 936, 3303, 1764, -1393, -1064, 3560, -1525, -1617, 6042, -497, 2411, -2689, -3242, -1011, 2609, 1977, -921, -750, -1451, -1222, -2043, -892, -108, -631, -182, -2036, -922, 403, -1568, 3118, -2422, 260, 2251, -1195, 2120, -1914, -211, 511, -3886, -3636, -154, 4249, -2073, -712, 2999, -1169, 4486, 3504, -1751, -654, 1060, 1879, -1492, 2184, -2040, 2262}