{10006, -10453, -1208, 6834, -5649, 4899, 5394, 3187, -4196, -3489, 3747, 3607, -899, 10635, -8923, -6571, -904, -3104, 5614, -14606, -3740, 1503, -12457, 3906, 3951, 7396, -17406, -7910, 9296, -10219, 11264, -11105, 12886, 2023, -1346, -16231, 13280, 8299, 4238, -7339, 10345, -10766, -8608, 893, 7733, 91, 198, 7950, 18, -8736, -4366, -5669, -6173, -9512, -256, 10448, -8856, -8553, 7152, -12609, 2306, -5417, 5377, -2497, -4670, -2290, 7076, -6769, -2786, -10137, 11284, -8638, 3676, 3904, -19402, -3611, 5505, 13551, 2846, -8113, -16651, -1561, 4789, 15970, -7833, -15692, 20086, 2404, -303, 1099, 8440, -11667, -1190, 5311, -9132, -9576, 4675, 664, 99, 2035, 2557, 7090, 7846, 2088, 11210, -5317, 2163, -4989, 6845, -2518, 3928, 1608, -3396, -2419, -12449, -243, 8413, -2052, -3088, 12752, 9347, -9600, -4713, -74, -6488, -7239, -10921, -21501, -3516, -16169, 4384, 9712, -5259, -5062, -6854, -6678, -5139, 2504, -7386, -1447, 5444, -417, -30045, 511, 463, -9282, -17178, 613, -1123, -256, -11625, -990, 3269, 8756, 2874, 7827, 4677, 15479, -2707, -12793}