{1980, 2029, 1863, 835, 519, -180, -1177, -502, -991, 60, 839, -806, -2221, 2458, -1039, -795, 187, -530, 2397, 699, 239, 3381, 2327, 2915, 1201, 2924, 5, 178, -2050, 1812, 621, 1571, -224, 255, 756, 416, 817, 2590, -906, -3503, -914, -1310, 493, -252, -1385, -796, 2437, 1999, 1240, -1050, 135, 2697, -818, 359, 4521, 1876, 1335, 1372, 2211, 133, 1597, -864, -700, -1364, -369, 2322, -2223, 1943, -1077, -2289, 1968, -563, -172, -1660, 1136, -1040, 1546, 24, 243, -1311, -2006, 1960, -251, 1467, 1861, 1625, 2180, 3169, -1412, -1939, 3179, -254, 1345, 2202, 2926, 322, 531, 1424, 2097, 1279, 1485, 1690, 1437, 1642, -1988, 4825, 73, -1961, 1900, 1888, 1434, 222, 1031, 1125, 797, -2059, 1181, 1799, 1884, -1346, 1770, -115, -2327, 911, -1888, -437, 1954, 1700, 1424, 1115, -274, -1325, -1480, -2012, 4066, 1693, 2635, -1219, -286, 101, -1996, -264, 2245, 1852, 2371, 1972, -328, -751, 2036, -1268, 877, 1088, 2556, 2576, -1395, 1899, -1793, 1226, 1194, 644, 1822, 1337, 639, 1252, -569, 2539, 2007, -1688, 2052, 1924, -244, -1801, 2073, 474, -1721, 476, 2238, -243, 3008, 2502, 1788, 1557, 1876, 89, -706, 272, 1212, -2138, 1946, -1200, 1496, 1875, 1915, -4, 1640, 4103, 253, 2240, 4402, 1565, 362, -318, 1803, -881, 2970, 1991, 1089, -1720, -828, 1654, 514, -600, 1149, -1533, -782, 1793, 1994, 2263, -2006, 1173, 424, 579, -1087, 2759, -1243, -423, -1040, -1142, 1234, 1667, 1778, 1182, 443, -1161, 1690, 2082, 969, -111, 3302, 1518, 2749, -12, -1755, 2144, -599, 2316, 973, 1026, 1145, 1886, 2262, 0, -1711, 2274, -749, 2316, 1026, -631, -434, -2522, 2764, 1641, 416, 2456, 1383, 995, 1964, 1689, 2516, 3479, 582, 476, 2423, 509, -535, 752, -944, -1271, -1530, -2080, 2170, -1294, 3229, -1348, -3, 2484, 3138, 3099, 550, 878, 1018, 1566, -1822, 146, 1679, 56, 1161, 122, -444, 2111, 3319, 302, -1470, -1309, -2087, 248, -1367, -483, 1993, 1165, -247, 965, 3270, 1951, 2759, 2455, 1581, 205, -443, 1066, 2230, -1511, 2546, 1733, 3064, 769, -1309, 2023, 554, 1576, -2013, -1212, 1638, 300, -1519, -157, 1166, 2033, -364, 1552, 2200, 2173, -3639, -395, 2443, -2168, -1131, 2548, 429, 2395, 1833, -49, 428, 2286, -1763, 1835, 3384, 3245, 3764, 664, 1035, -1461, 2463, 1987, -1610, 1309, -1836, 723, -732, 1127, 2515, -1048, 271, 2693, 417, 842, -998, 2308, 1497, -1269, 1659, 97, 1734, -1785, 1956, 1164, 891, 999, 2080, 68, 1993, -420, 2637, 962, 918, 1894, 1481, 1899, 1498, 1991, -380, 1399, 383, -43, -1753, -2095, 3199, -2505, 905, 399, 1447, 311, 2023, 3015, -726, -1897, 1132, -570, 318, 4152, 148, 157, 87, -352, -3250, -2538, -1590, -803, 755, 2357, 2085, 2397, 3102, -607, 1620, -2285, 3050, 2778, -1603, -1002, 848, 2539, 718, -581, -492, 154, 765, 80, 44, 1154, 2151, 51, -1893, 1469, 945, 1733, 839, 1024, 2595, 1451, 1885, 1730, -414, 1410, 1352, -716, -79, -1960, 2540, 2113, -2379, -801, -933, 558, 350, -1770, -1781, 807, -1628, -587, 134, -981, 2929, 740, 365, 3712, 2165, 1819, 2627, -1240, 1106, 3458, -2210, 1056, 322, 1385, 2929, 1245, 115, -1868, 1929, 1145, -1099, 1619, 257, 3036, -3014, 2212, -1619, -144, 1670, -1931, 1807, -1285, -3253, 2032, 2546, 2180, -203, 672, 996, 2617, 1983, 2451, 282, 2166, -1947, -1412, 1949, -1916, 1896, -79, -2374, 3141, -133, -737, -1560, 374, 1519, 1945, 2352, 867, 1470, 1427, -220, -7161, -430, 972, 1630, 314, 1408, -1267, -771, 3563, -797, -524, 2308, -1296, -908, 1255, 2323, -509, 2215, 2265, 1156, 1506, -844, 2115, 2310, -618, -616, 130, -1877, 1790, 152, 970, 1770, -96, -961, 2536, 1903, 724, -1324, 1965, 2239, -971, 140, 1889, -2839, -1865, -1447, -643, 2556, 2986, 1362, 1353, 2571, 346, 1824, 2297, 1528, -2615, 2230, -1033, 1440, -828, 1569, 968, 890, -736, 1016, 1568, 2199, -730, -782, 630, 1897, 2286, 1159, 1623, 3164, -1627, -453, 1189, 2193, 100, -1164, 2781, 1873, 1994, 863, -2201, 885, 27, -1352, 3355, -1197, 2121, 2636, 2055, -1459, 3468, 127, -768, -18, 552, 1127, 1834, 1987, 1699, -1000, 405, 49, -210, 2429, -1542, 170, 1988, 2292, 669, 712, -634, 2451, 2313, 1788, -139, -1594, 2441, -2148, 206, 1728, 2239, 3738, 1328, 1753, -34, 22, 433, 685, -259, 3138, 2278, 3687, 1713, 1453, 1921, 273, 1283, 1837, 1098, 858, 2181, 911, 596, -1954, 1909, 1649, -1072, 2380, 2132, -2335, -801, 1778, -811, 2204, -495, 2534, 3124, 107, 298, 416, -1054, -2576, 2162, -2301, 2917, 1863, 3951, 885, -1181, 1514, 2383, -1414, -1511, 2358, 3740, -60, -1440, -1855, 293, 2603, 1443, -374, 1824, -318, 124, 1237, -1267, 1821, -945, 1323, -1251, 2362, -1238, -693, 110, 2422, 217, -1778, 2245, -722, -177, 890, -695, 55, 2631, 30, 548, 769, -649, 1099, 116, -1133, 1724, -1789, 1034, 2205, 1284, 1086, -1933, -1629, -880, 2435, 1698, -1303, 1967, -310, 1036, 518, 1937, 2376, 931, 1342, 3052, 701, -2502, 1172, -2601, 1715, 345, 723, 3225, -1894, 946, 2794, 2484, 1939, -1077, 1232, 1236, 468, 2618, 2048, -1026, -1270, 2215, 2376, 2933, 2960, 362, 1229, -377, 2026, -814, 1781, -303, 2316, 1801, 1509, -1121, 1154, -2255, 1969, 1047, 401, -1584, 2055, 1814, 1067, 659, 2700, 1448, 327, 1457, 2534, 2044, 17, -1298, 1287, 3203, 2962, 1421, 1455, -419, 1941, 2209, -2020, 752, 184, -1413, 1350, 1039, 4063, 3490, -3090, 1830, 2112, 3385, -91, 807, 2189, 1402, -268, 2061, 2077, 2213, 86, 2582, -797, -519, -1091, -493, 436, -470, -2024, 545, 2435, -2069, 377, -614, 871, 422, 600, 1184, 1156, 1712, -1283, 2119, 53, 2650, 2410, 364, 1490, -37, 3659, 2242, 1483, 1337, -1243, 1344, 105, -602, 315, 1579, 2148, 2083, -410, -1581, -1927, -992, -1160, -435, 2033, 2698, -853, -1880, 4345, -633, 986, -3047, 2456, -618, 2274, 1201, 1662, 2019, 2389, 812, 2383, -2013, -2309, 3990, 2333, 2140, 73, 800, 2482, -73, 1514, 111, -1380, 1536, 2047, 1999, 1359, 509, -1196, 1706, 2439, 1519, -1270, 2897, 1657, 2421, -1272, -2467, 259, 947, 587, 1931}