{-1949, -4246, -6298, -4786, -674, -4477, 16664, -3285, -5687, -2506, -6548, 12072, -233, -785, 421, -2241, -1774, 2415, -180, -1600, 12163, 4198, 6159, -79, -4277, 108, 5817, 1480, -3954, 750, 4580, -1016, -2390, -3203, 3439, 208, 478, 4022, 2367, -1587, -2084, 2949, 7719, -2826, -1604, 1703, -4059, -225, 780, 1513, 3613, 365, 5971, 1479, -2537, 2566, 5979, 11817, -1075, 337, 1769, -9383, 102, -10, 1342, 2450, 7431, -2032, 4877, 1374, -1701, -5132, -4685, -3731, 2689, 1077, -1283, 4790, -4511, -1618, -4804, -3091, -1057, -1480, -860, -1055, 5418, -2330, 9899, 711, 3202, -157, 5540, 2353, 1360, 3832, -1860, 4177, -3105, -3181, 3925, 279, -2396, -620, -5438, -4454, -8374, 1460, 3131, -1986, 1662, 4160, 5081, 568, 2594, -593, 6693, 4218, 5829, -3249, -4791, -86, -7061, -380, -1275, 5696, -1350, -6927, 554, 2885, 9019, 2166, 2753, 2736, 7176, -4073, -1651, 406, -513, 1583, 6885, 3912, 4885, -2314, 1032, -5149, 4079, 3352, 1489, -365, -6153, -761, 3318, -2166, 1877, 6400, 3337, -5645, -4566, -4550}