{1036, 602, 3517, 1951, -2306, -1870, -912, -315, 5002, 3834, -1496, -3245, -602, -2348, -337, -2287, -1617, 3407, -494, -1501, -71, 635, -15, -855, -2801, -1698, 1665, 2233, 2181, 2171, 3746, -1603, -59, -3883, 2528, 343, -137, 2012, 1073, 4431, 302, -2240, -1915, 1000, 3064, -915, 3644, 3738, -2153, 380, 1130, 2247, 3207, 1380, -1595, -1253, -2058, 3600, -2165, -3647, 1564, 1932, 437, -967, -4502, 1678, -1052, -2906, 2418, -2381, -2527, -3037, 1778, -1999, -1534, -3676, 1023, -5908, -2213, 952, 637, 712, 121, -1682, -1271, -1965, -2074, 1617, 448, 2578, -2226, 758, 1123, 4286, -624, -1225, 2520, 3814, -2308, 2225, -1778, 3919, 1035, -1396, 2229, 1788, 3358, -1854, 2053, 1110, -1300, -511, 1977, -1567, 3260, 765, -4157, 1575, -1877, -2127, -389, 981, -4411, 1454, -3081, -2691, 792, 2013, -492, -1524, 618, -1716, 2189, 1392, -2587, 3678, 3805, -3340, -1311, 3813, -1571, 1082, 4011, -834, 2169, -1684, -2703, 1021, 2044, -1711, -2144, -24, -2493, -2474, -149, -3004, 1427, -1442, 2359, 748, -838, -1416, 320, 2159, 3735, -2084, 3587, -665, -1181, -2380, -2878, 1890, -1696, -266, -3970, 750, -2779, -1503, 3439, 227, 4334, 1751, -1057, -2580, 135, -230, 64, -3426, 369, -2854, -1915, -332, -724, 604, -613, 2948, -4020, -1277, -1642, -2632, -1713, -3447, 2058, -2984, -2436, -278, -8097, -1054, -600, -2646, 1529, -1503, -2697, -182, 2059, 2766, -1941, -1951, 4165, -1162, -502, -4161, -2701, -2065, 2463, -781, -787, 622, 101, -48, 1821, -3107, -2553, 1491, -177, 4958, -1726, 3183, 154, 832, 573, 2023, 1252, -619, -1228, 809, -1916, -1708, 1348, -3422, -30, -58, -1804, -1153, -1903, 3429, 1811, 2647, 496, 1673, 1973, -960, -1445, 2585, -2111, 2715, -226, 253, -1587, 1858, -306, -3337, -2171, -851, 1710, -233, -2209, 1211, -984, -280, 2172, -3510, 1007, -1317, 788, -357, -2177, 1792, 4870, -2202, 785, -1828, 1665, -2708, -641, -1602, 615, -924, -1049, -3029, 1773, -1117, -1523, 3728, 1992, 1761, 3163, 1703, -1063, 1757, -846, 2662, -2958, 338, 1036, 209, 4037, -3279, 736, -2137, 650, -3472, -3247, 877, 1211, -2913, 1401, -2352, 145, 2285, 2725, -2299, 2987, 285, 234, 2576, -1768, 2705, -2120, 1587, -1857, 1636, 2659, -960, -2292, -1088, -2385, 2136, -1059, -5551, -819, -2681, 258, 1860, 3626, 1384, 3537, 2831, -1027, 3851, 718, -1020, 760, -3362, -2563, -2636, 2760, 317, -39, -2433, -3628, 21, 3176, -1417, 3274, 961, -3445, -2045, 876, -3705, -2228, 1310, -2827, -4933, 549, -1085, -690, -767, -1267, 629, -3040, -2292, 1219, 72, 1939, 2717, 1879, 2295, 2019, 3752, -638, -851, 707, -2336, -2117, -290, 3125, 1756, -1884, 789, 580, 1625, 2177, -3859, -2582, -573, -4156, 3633, 7144, -1498, -2317, -683, -1582, -851, -2577, -711, -797, 2, 3342, 2922, 1901, 691, -484, 961, 225, -3294, -1011, 2737, -1214, -123, 2479, 4786, 3315, -276, -2962, -1639, -1749, 68, 3388, 2302, -2517, -867, 987, -831, -741, 2003, -94, 3201, -828, -3056, -1458, -1929, -490, 1485, -121, -109, 65, 2611, 1514, 1062, -771, 2492, -409, 3452, -239, -3266, -1517, -192, 1701, 912, -1132, 1179, 4318, -633, -1150, -1659, -889, 4625, 218, 2379, 2426, -1787, -926, 224, 2550, 939, 24, 621, -3884, -336, -110, -1904, -1369, -242, -3174, 4306, -2667, 2954, -2067, 2097, -403, 37, 1985, 507, 1739, -2983, -4094, 1084, 4469, -425, 1350, 1080, 4177, 2560, -608, -454, 1315, -3593, -1829, 825, 702, 979, 236, -1906, 1507, -1649, -2089, -3157, 2382, 2200, -881, -2408, -138, -2172, -1439, -2006, -1235, 1565, 1214, -3, -3632, -3501, -1257, -2460, 4803, -3721, 770, -1963, -2148, -2265, 133, -1915, 2250, 2348, -942, 3009, -1791, -2975, 2499, -1520, 1861, -762, 636, -1125, 2495, -1944, -1102, 571, -1021, -2415, -1277, -1099, 364, -2841, -2529, 1942, -3313, 2417, -1347, 1386, 485, -1844, 2348, -675, -1062, -1619, -3734, -1656, -1850, 1968, 869, 3422, -3340, -1084, 2288, 2219, -1133, -2692, -386, -2184, 3900, -1877, 2818, -2904, 2606, 2919, 2075, -95, -1367, -1056, 3618, -1359, -3246, -2396, 1213, 2419, -3170, 1866, -1005, -3518, 562, 2479, -2563, -69, -538, -1791, 1205, -1666, -65, -2406, -29, -1102, 2352, -249, -2954, 2479, 816, 3104, -1248, 2019, -615, -1200, -3547, -21, 586, 1821, 55, 2147, -1087, 4219, -111, 1824, 1161, -693, 25, -1803, 5318, 111, 940, 730, -872, -2176, -1062, 1266, -230, 1060, -1867, -2695, -543, 1470, 4249, -448, 2124, 1817, 1718, -1213, 684, -673, 1534, -1548, -3812, 2504, 1295, -1524, -1604, -1270, -3095, 2333, -4349, -3101, -2886, -13, -3303, 884, 2368, -432, 3562, -296, -1297, 2237, 1776, 90, 1459, 1617, -2364, -2804, -981, -478, -321, 1225, 402, -1664, 1036, -1540, 4127, -952, -1725, 1670, -1654, -2025, 2507, -1613, 1141, 328, -2105, -275, -545, 1781, 4555, 1618, 3858, -2316, -1230, 1994, 135, -18, -750, -2145, -3363, 1373, -14823, -1609, -1157, -324, -3502, -2136, 2323, -2396, 1939, -1579, 2343, -1012, -552, -1992, -94, 2092, -1596, 3474, -2298, 299, -382, 3397, 2565, 1855, 4317, 1439, -1951, 2438, -487, 450, 486, -1053, 3394, -37, -546, -356, -864, 1317, 3997, 8, -73, -959, -134, 2246, -3213, -1555, 2667, -3888, -149, -2052, -2278, -2174, -1472, 1446, 3899, -1115, -838, 2020, 2122, 2708, 3666, 3310, -69, -133, 2244, 290, -1188, -392, -1406, -1864, -2717, -265, -3193, -156, 3937, 1034, 1656, 2267, 95, 3036, -1933, -3263, -298, -2747, -2404, 1218, -397, 1624, 4127, 722, 218, -3053, 1003, -1048, 2663, -2775, -508, 911, -632, -2800, 1643, -890, -1147, 583, 820, -2337, -1837, 1446, 1385, -1288, 493, 2734, -262, -433, 1069, -1241, -945, 4277, -1721, -1512, 744, -1791, 3734, -34, 260, 2873, -1592, 4906, 1128, 1409, 299, -1981, -1035, 1855, -1524, -1080, 3005, -1137, 2105, -1113, 441, -1917, -3313, -1478, -1427, -753, -15, -1806, 142, -1582, 1796, -668, 684, 1255, 887, -3177, 2554, -147, -2687, 4445, 835, -2542, 322, -3791, -1996, -2287, -199, 4053, 2646, 1391, 2768, -1497, -1083, -325, 3044, -4000, -4164, 4381, -3573, -2214, 2676, -352, -3251, 673, 2112, 611, -2530, -2347, 2967, 1603, -1203, -495, -2731, 1364, -1978, 318, 612, -2931, 3657, -1678, 2212, -348, -3304, -376, 4570, -1492, -1276, -3460, 1649, -1911}