{-20245, 4738, 4524, 4637, 6617, -225, -3195, -481, -2077, -5886, -1080, -775, 1772, -2826, 171, -432, -4851, -1315, -764, 444, -2599, -2143, -6557, 1165, -5472, -1152, 5188, -3342, 2555, 3147, 1635, -1320, -2918, -2857, 1337, -6136, -2811, -1506, 5349, -647, 1424, 418, 2724, -1808, -5719, 3450, 7719, 2533, 1266, 4038, 759, 130, -1677, -5512, 3684, 108, 7446, 1794, 9579, -943, -656, -5049, 1709, -2300, 5315, 6853, -604, -409, 7483, 1746, -810, -2717, 920, 10147, -2198, 5319, 5266, -734, -1205, -6613, 437, -5772, -5218, -8634, -6580, 1918, -2790, -4757, 4733, -490, -1636, 4922, -2838, -2443, -1769, -1810, 3261, -11, 713, -4216, -4812, 3651, 1870, 5046, -5147, -1068, 3918, -567, -2260, 658, 1606, -7073, -10098, -3312, -5980, -3159, -1628, -7435, 3374, 4823, -1866, -3643, 7005, 8206, 6026, 4764, 1921, -6263, 514, -962, 1989, 2431, 528, 3064, -5672, -3972, -273, 509, -2975, -3049, 3127, -992, 5736, -3698, -744, -1637, 2190, -2333, -2029, -349, 1813, -2136, -1855, -2304, 5240, 159, 678, 6793, 2875, -3935, 1624, -586, 8138, 4222, -415, 4696, -4314, 2744, -4636, 4877, 502, 601, 273, -3943, 728, 5084, 501, 1042, 487, -1711, -3024, -1193, 4307, 3672, 3313, 462, 3396, 1006, 2259, 1638, 3223, -1149, 1958, 1351, 4267, 3811, 9839, 4742, 1778, 700, 2151, 3063, 3201, 2762, 2933, 2361, 1764, 500, -6, -2176, -1024, 1138, 493, 3652, 1145, 4165, 2485, 834, 2696, 5180, 1320, 984, -1283, 4150, 1027, -718, 3000, 6580, -787, 2795, 5338, 6391, 765, 2646, 2205, 3622, 3081, 3396, 349, 10897, 13141, 10319, 3179, 2346, 617, 3860, 2605, -159, 11719, 1954, 1230, 385, 6194, -1399, 2180, 1647, 2874, 1665, 6522, 5249, 774, -177, 3191, 485, 469, -1124, -854, 4453, -457, -4397, -3938, -1110, -4235, -3218, -3694, -4209, -2750, 3137, -1751, -3775, -656, -88, 3320, 1149, -2578, 2290, 272, -1618, 1131, 3187, 5185, 5854, -658, 7475, 6626, -2735, -5663, -5102, -1854, -8489, -5956, -1321, -4663, -5434, -4593, -3895, -4503, 1859, -5590, -3836, -4129, -10900, -5731, -5134, -1991, -5548, -1779, 3033, -2907, 707, 125, 77, 6704, -739, 8284, -1027, 1332, -3100, -4985, -4730, -3046, -5229, -6478, 4470, -2412, 4093, -2045, -4285, -3756, -4793, 1246, 7023, -6253, -3075, -4501, -2498, -2111, -989, 717, -2648, -315, -2857, 2882, 475, -1006, -1162, -723, -8203, -8092, -2283, 1665, -4408, 2458, -671, 389, -5330, -383, 210, -535, -727, -4164, 5719, 2000, -761, -1824, -4361, 754, -686, -1521, -114, -5392, -2796, -3967, -38, -267, -7671, 4150, 4200, 1459, 1390, 7376, -6066, 7074, -1373, 4547, 4295, 5928, 8012, 1320, 4449, 1936, -1421, 5964, 6757, 173, 939, -369, 1615, 2625, 1583, 2584, -3435, 3125, -2422, -752, -2882, -2624, -2433, -1428, -5601, -6539, 8347, -4096, -2512, -1163, -2587, 25, 4073, -4561, -610, 3453, 163, 3043, 2361, 1169, -3983, 685, 1231, -2968, 5882, -934, 3968, 3255, -1730, -2399, 3339, 3064, -4229, -4868, -10, -2511, 1711, -8289, 4780, 5222, 3687, -5415, -937, -2904, -4902, -4257, -1549, -4103, -253, 1347, -7057, -2500, 4021, 6183, 2458, 937, -4243, -4187, -5492, 994, 7516, 7033, -599, 7802, -4410, -2106, 5816, -8416, 1305, -2105, 2230, 3666, 8153, 3184, -13784, -1829, 72, -1705, -684, -640, -4594, 1052, 2845, -28, 2915, -2660, -1540, -7027, -8533, 1014, 4405, 2413, -11461, -355, 5079, 2251, 615, 453, -1304, 1841, 2692, -921, 211, 3975, -418, -4392, 2931, 3261, -968, -2525, 986, -1030, 5372, 10866, 2525, -2465, 8059, -2479, -1857, -2564, -321, 14, -4628, 5572, -4891, -4290, 1690, -3256, -1786, -8076, 304, -2575, 6377, 5803, 7063, -1664, 3190, -4278, 1172, -4175, 4633, 4960, -3893, -2607, -2474, -10350, -469, 4417, -2643, 498, 3780, -1614, 5520, 780, -3449, 3434, 1191, 2614, -1623, 1354, 4882, 3618, -895, 2104, 4604, 3436, -5962, -467, -392, -4786, -16443, -193, 4135, -675, -1235, 3061, 6165, -4436, -543, -459, 10278, -634, -5842, 3756, 8787, -843, -3060, -717, -2371, 9194, 1694, 1671, 3689, 2692, 1983, -1824, 3878, -3680, 5966, 453, 1273, -11129, -11151, 3068, -2209, -2485, 2621, 2510, 5375, -7047, -2295, 4171, -186, 3557, 2456, -1249, -4870, -893, -2087, -2665, -5298, 2114, 271, 347, -126, 2716, -976, -562, -887, -2023, -8519, 237, -6587, 5834, 101, -4784, 2554, 276, -2554, -3515, 3800, 5786, 2361, -1587, 3257, -2182, -2375, 6138, 665, -8273, 4647, 3243, -512, -3730, 1490, 4102, 3106, 1591, 469, 4414, -6220, 641, -4223, -7921, -2065, -6209, 1163, 7653, 61, -1442, -2428, 10297, 1371, 1906, 5015, -2636, 5552, 2326, -3757, -619, 2960, -752, -1763, 651, -7076, 7641, -3432, -935, -6241, -9832, 2355, -4257, -3252, 1456, -7088, -19, 528, -246, -7249, 2286, -8657, 3217, -2218, 1969, -2065, -1121, -679, -2233, 747, -6224, 4403, 132, -4443, -1629, -2512, -5331, -2770, 259, 5018, -6719, 6870, 524, -71, 995, -4242, 3916, 45, 200, 4018, -6014, -825, 4083, -3084, -821, -1438, -1535, -2711, -1824, 1002, -2268, 2852, 2826, 335, 2315, 1471, 6704, -74, 4240, -1006, 1937, 36, -1717, 877, -2385, 2395, -431, -2175, -6301, -7770, -1188, -10157, 3377, 7451, -4883, 2764, 4686, 5744, -4302, 4349, -7228, 2744, 1996, 2564, -4366, -1784, 2022, -3476, -360, 3829, 646, -4806, -1361, 3564, -322, -1847, -2115, 6916, 4204, 899, 6111, -4678, -696, -580, -1148, 1743, 7908, 4227, -3307, -1178, -2131, 1405, 1385, -1815, -231, -4943, 1360, 4086, 1002, 3896, -2286, -895, -3696, -1435, -2330, -985, -665, -7486, -831, 4180, 883, 3128, 748, 1394, -1385, -6073, -505, 695, -1471, 3058, -1141, -2504, -2184, 176, -1496, 2780, -664, -8463, 7049, 1528, -4435, -1999, -465, 616, -5128, -9893, -118, 154, 595, 747, -74, 652, 907, 2860, 2266, -4232, 1475, 698, 1320, -3641, 1610, 2738, 5680, 387, -1560, 6644, -1888, -921, 561, 5853, -2667, -4127, -11789, 10475, 2154, -1004, 5264, 33, 2788, -2808, -763, -5029, -5590, 882, 4574, 1920, -143, 2648, 2798, -6511, 531, -4236, -2230, -5998, -601, -5421, 5183, 1376, -6573, -8092, -3427, -636, 1970, 5022, 318, 10759, -2967, -2287, -4607, 823, 11588, 7454, 7032, 7754, 5874, 1766, 4247, -1929, 2789, -2530, 10001, 8929, 13087, 354, 2886, 3612, 4944, 265, 2656, 1099, 4417, -1423, 2301, -5351, -3773, 2154, 1185, 509, 3805, 22, 4023, 2626, 2406, 3573, -162, -327, 10695, -67, -2457, 4685, 3049, 6880, 6616, 2040, 3048, -939, 4498, -2806, 367, -4687, -3014, 2720, -6314, -2978, -4714, -3222, -12088, -1355, -1258, 9070, 5901, -2785, -1175, -3950, 210, -1879, -3969, -6826, -4178, 2636, -194, -5101, -5420, -7531, -3474, -508, -2638}